<?xml version="1.0"?>
<opencv_storage>
<cascade>
  <stageType>BOOST</stageType>
  <featureType>HAAR</featureType>
  <height>24</height>
  <width>24</width>
  <stageParams>
    <boostType>GAB</boostType>
    <minHitRate>9.9500000476837158e-01</minHitRate>
    <maxFalseAlarm>5.0000000000000000e-01</maxFalseAlarm>
    <weightTrimRate>9.4999999999999996e-01</weightTrimRate>
    <maxDepth>1</maxDepth>
    <maxWeakCount>100</maxWeakCount></stageParams>
  <featureParams>
    <maxCatCount>0</maxCatCount>
    <featSize>1</featSize>
    <mode>BASIC</mode></featureParams>
  <stageNum>12</stageNum>
  <stages>
    <!-- stage 0 -->
    <_>
      <maxWeakCount>2</maxWeakCount>
      <stageThreshold>-3.2488542795181274e-01</stageThreshold>
      <weakClassifiers>
        <_>
          <internalNodes>
            0 -1 6 -8.4949709475040436e-02</internalNodes>
          <leafValues>
            7.2093021869659424e-01 -7.5474959611892700e-01</leafValues></_>
        <_>
          <internalNodes>
            0 -1 45 2.6909401640295982e-04</internalNodes>
          <leafValues>
            4.2986413836479187e-01 -9.3773591518402100e-01</leafValues></_></weakClassifiers></_>
    <!-- stage 1 -->
    <_>
      <maxWeakCount>5</maxWeakCount>
      <stageThreshold>-2.0960955619812012e+00</stageThreshold>
      <weakClassifiers>
        <_>
          <internalNodes>
            0 -1 72 6.5111085772514343e-02</internalNodes>
          <leafValues>
            -7.0508474111557007e-01 6.7586207389831543e-01</leafValues></_>
        <_>
          <internalNodes>
            0 -1 13 -1.2437496334314346e-02</internalNodes>
          <leafValues>
            5.0504457950592041e-01 -6.8829554319381714e-01</leafValues></_>
        <_>
          <internalNodes>
            0 -1 49 -1.3673824723809958e-03</internalNodes>
          <leafValues>
            4.3407586216926575e-01 -7.4227833747863770e-01</leafValues></_>
        <_>
          <internalNodes>
            0 -1 26 -3.4735158085823059e-02</internalNodes>
          <leafValues>
            8.3978670835494995e-01 -4.1138282418251038e-01</leafValues></_>
        <_>
          <internalNodes>
            0 -1 9 7.1825673803687096e-03</internalNodes>
          <leafValues>
            -7.4239432811737061e-01 4.3559277057647705e-01</leafValues></_></weakClassifiers></_>
    <!-- stage 2 -->
    <_>
      <maxWeakCount>6</maxWeakCount>
      <stageThreshold>-1.5757654905319214e+00</stageThreshold>
      <weakClassifiers>
        <_>
          <internalNodes>
            0 -1 39 -7.9641938209533691e-02</internalNodes>
          <leafValues>
            6.8292683362960815e-01 -6.1198735237121582e-01</leafValues></_>
        <_>
          <internalNodes>
            0 -1 2 -4.3990261852741241e-02</internalNodes>
          <leafValues>
            4.4251289963722229e-01 -7.7037215232849121e-01</leafValues></_>
        <_>
          <internalNodes>
            0 -1 74 4.0126405656337738e-02</internalNodes>
          <leafValues>
            -6.2515139579772949e-01 5.4049408435821533e-01</leafValues></_>
        <_>
          <internalNodes>
            0 -1 28 2.9694323893636465e-04</internalNodes>
          <leafValues>
            -5.9076195955276489e-01 4.8004066944122314e-01</leafValues></_>
        <_>
          <internalNodes>
            0 -1 24 -2.4393161758780479e-02</internalNodes>
          <leafValues>
            3.8071078062057495e-01 -6.3976734876632690e-01</leafValues></_>
        <_>
          <internalNodes>
            0 -1 64 -5.8068096404895186e-04</internalNodes>
          <leafValues>
            5.1349693536758423e-01 -5.7108843326568604e-01</leafValues></_></weakClassifiers></_>
    <!-- stage 3 -->
    <_>
      <maxWeakCount>8</maxWeakCount>
      <stageThreshold>-1.5763833522796631e+00</stageThreshold>
      <weakClassifiers>
        <_>
          <internalNodes>
            0 -1 7 -1.2168316543102264e-01</internalNodes>
          <leafValues>
            5.5087721347808838e-01 -6.3361346721649170e-01</leafValues></_>
        <_>
          <internalNodes>
            0 -1 25 -1.2103492021560669e-01</internalNodes>
          <leafValues>
            7.0970773696899414e-01 -3.9895603060722351e-01</leafValues></_>
        <_>
          <internalNodes>
            0 -1 51 -3.4565952955745161e-04</internalNodes>
          <leafValues>
            3.8368800282478333e-01 -7.1058750152587891e-01</leafValues></_>
        <_>
          <internalNodes>
            0 -1 60 6.7032827064394951e-03</internalNodes>
          <leafValues>
            2.2963003814220428e-01 -9.6881109476089478e-01</leafValues></_>
        <_>
          <internalNodes>
            0 -1 0 -7.4276149272918701e-01</internalNodes>
          <leafValues>
            4.9350348114967346e-01 -4.8249366879463196e-01</leafValues></_>
        <_>
          <internalNodes>
            0 -1 62 2.7320105582475662e-03</internalNodes>
          <leafValues>
            -5.9548091888427734e-01 3.6261349916458130e-01</leafValues></_>
        <_>
          <internalNodes>
            0 -1 80 7.7807484194636345e-03</internalNodes>
          <leafValues>
            -3.7750786542892456e-01 5.9550148248672485e-01</leafValues></_>
        <_>
          <internalNodes>
            0 -1 56 -1.0308267083019018e-03</internalNodes>
          <leafValues>
            4.3453165888786316e-01 -5.0466549396514893e-01</leafValues></_></weakClassifiers></_>
    <!-- stage 4 -->
    <_>
      <maxWeakCount>7</maxWeakCount>
      <stageThreshold>-1.7535023689270020e+00</stageThreshold>
      <weakClassifiers>
        <_>
          <internalNodes>
            0 -1 30 -1.1530267447233200e-01</internalNodes>
          <leafValues>
            5.8823531866073608e-01 -5.6074768304824829e-01</leafValues></_>
        <_>
          <internalNodes>
            0 -1 10 -3.2201223075389862e-02</internalNodes>
          <leafValues>
            4.5794740319252014e-01 -5.9976536035537720e-01</leafValues></_>
        <_>
          <internalNodes>
            0 -1 55 -1.7045924440026283e-02</internalNodes>
          <leafValues>
            3.5854211449623108e-01 -6.5511775016784668e-01</leafValues></_>
        <_>
          <internalNodes>
            0 -1 63 2.0264476188458502e-04</internalNodes>
          <leafValues>
            3.2265475392341614e-01 -7.9972833395004272e-01</leafValues></_>
        <_>
          <internalNodes>
            0 -1 20 2.9068391304463148e-03</internalNodes>
          <leafValues>
            -7.2153550386428833e-01 1.8685217201709747e-01</leafValues></_>
        <_>
          <internalNodes>
            0 -1 44 -1.1800025403499603e-01</internalNodes>
          <leafValues>
            -8.9919543266296387e-01 1.9303269684314728e-01</leafValues></_>
        <_>
          <internalNodes>
            0 -1 76 1.2597722001373768e-02</internalNodes>
          <leafValues>
            -6.4041113853454590e-01 2.4436555802822113e-01</leafValues></_></weakClassifiers></_>
    <!-- stage 5 -->
    <_>
      <maxWeakCount>6</maxWeakCount>
      <stageThreshold>-9.1474056243896484e-01</stageThreshold>
      <weakClassifiers>
        <_>
          <internalNodes>
            0 -1 78 1.0273365303874016e-02</internalNodes>
          <leafValues>
            -6.7578947544097900e-01 2.4938271939754486e-01</leafValues></_>
        <_>
          <internalNodes>
            0 -1 11 -6.7998960614204407e-02</internalNodes>
          <leafValues>
            3.9239266514778137e-01 -6.3720822334289551e-01</leafValues></_>
        <_>
          <internalNodes>
            0 -1 40 -2.7842937037348747e-02</internalNodes>
          <leafValues>
            -3.7865892052650452e-01 6.1904877424240112e-01</leafValues></_>
        <_>
          <internalNodes>
            0 -1 75 2.8477297164499760e-03</internalNodes>
          <leafValues>
            -6.0815209150314331e-01 4.0539166331291199e-01</leafValues></_>
        <_>
          <internalNodes>
            0 -1 69 -1.3622369617223740e-02</internalNodes>
          <leafValues>
            2.8482779860496521e-01 -8.0273216962814331e-01</leafValues></_>
        <_>
          <internalNodes>
            0 -1 61 -8.9568635448813438e-03</internalNodes>
          <leafValues>
            2.8238528966903687e-01 -7.4862337112426758e-01</leafValues></_></weakClassifiers></_>
    <!-- stage 6 -->
    <_>
      <maxWeakCount>7</maxWeakCount>
      <stageThreshold>-1.4771666526794434e+00</stageThreshold>
      <weakClassifiers>
        <_>
          <internalNodes>
            0 -1 14 -5.1497533917427063e-02</internalNodes>
          <leafValues>
            4.0213522315025330e-01 -5.5592656135559082e-01</leafValues></_>
        <_>
          <internalNodes>
            0 -1 52 1.8654053565114737e-04</internalNodes>
          <leafValues>
            2.1069754660129547e-01 -8.0389636754989624e-01</leafValues></_>
        <_>
          <internalNodes>
            0 -1 53 -4.0299154352396727e-04</internalNodes>
          <leafValues>
            -7.7006465196609497e-01 2.4269208312034607e-01</leafValues></_>
        <_>
          <internalNodes>
            0 -1 4 -2.8575083706527948e-04</internalNodes>
          <leafValues>
            2.6157280802726746e-01 -6.5364301204681396e-01</leafValues></_>
        <_>
          <internalNodes>
            0 -1 16 -2.4183145724236965e-03</internalNodes>
          <leafValues>
            -7.9805052280426025e-01 2.3672243952751160e-01</leafValues></_>
        <_>
          <internalNodes>
            0 -1 79 2.1554371342062950e-03</internalNodes>
          <leafValues>
            -5.8269727230072021e-01 2.9531878232955933e-01</leafValues></_>
        <_>
          <internalNodes>
            0 -1 21 -1.1310847103595734e-01</internalNodes>
          <leafValues>
            5.1381826400756836e-01 -3.7501186132431030e-01</leafValues></_></weakClassifiers></_>
    <!-- stage 7 -->
    <_>
      <maxWeakCount>8</maxWeakCount>
      <stageThreshold>-1.3113852739334106e+00</stageThreshold>
      <weakClassifiers>
        <_>
          <internalNodes>
            0 -1 5 -5.7183317840099335e-03</internalNodes>
          <leafValues>
            1.4345991611480713e-01 -7.0935958623886108e-01</leafValues></_>
        <_>
          <internalNodes>
            0 -1 29 1.4953106641769409e-02</internalNodes>
          <leafValues>
            -5.7611298561096191e-01 3.2897907495498657e-01</leafValues></_>
        <_>
          <internalNodes>
            0 -1 49 -3.6018108949065208e-03</internalNodes>
          <leafValues>
            2.5629845261573792e-01 -6.1961859464645386e-01</leafValues></_>
        <_>
          <internalNodes>
            0 -1 46 -6.6975662484765053e-03</internalNodes>
          <leafValues>
            -2.9739147424697876e-01 5.4492384195327759e-01</leafValues></_>
        <_>
          <internalNodes>
            0 -1 65 -1.5538898110389709e-01</internalNodes>
          <leafValues>
            2.9102972149848938e-01 -6.5337771177291870e-01</leafValues></_>
        <_>
          <internalNodes>
            0 -1 8 1.7384744714945555e-03</internalNodes>
          <leafValues>
            -6.0276168584823608e-01 2.4829301238059998e-01</leafValues></_>
        <_>
          <internalNodes>
            0 -1 32 8.9527983218431473e-03</internalNodes>
          <leafValues>
            9.9425576627254486e-02 -8.7432998418807983e-01</leafValues></_>
        <_>
          <internalNodes>
            0 -1 34 3.7895620334893465e-04</internalNodes>
          <leafValues>
            -5.1265001296997070e-01 2.6108846068382263e-01</leafValues></_></weakClassifiers></_>
    <!-- stage 8 -->
    <_>
      <maxWeakCount>8</maxWeakCount>
      <stageThreshold>-1.1216447353363037e+00</stageThreshold>
      <weakClassifiers>
        <_>
          <internalNodes>
            0 -1 53 7.6327926944941282e-04</internalNodes>
          <leafValues>
            -1.6897082328796387e-02 -9.1266375780105591e-01</leafValues></_>
        <_>
          <internalNodes>
            0 -1 47 -4.5276619493961334e-03</internalNodes>
          <leafValues>
            -8.1957632303237915e-01 1.4352329075336456e-01</leafValues></_>
        <_>
          <internalNodes>
            0 -1 42 -1.6255319118499756e-02</internalNodes>
          <leafValues>
            1.7424535751342773e-01 -8.1827193498611450e-01</leafValues></_>
        <_>
          <internalNodes>
            0 -1 33 -1.1140578985214233e-01</internalNodes>
          <leafValues>
            -8.9430838823318481e-01 1.7116601765155792e-01</leafValues></_>
        <_>
          <internalNodes>
            0 -1 77 1.5700105577707291e-02</internalNodes>
          <leafValues>
            -4.7125568985939026e-01 3.2874444127082825e-01</leafValues></_>
        <_>
          <internalNodes>
            0 -1 3 3.0030781636014581e-04</internalNodes>
          <leafValues>
            1.5911826491355896e-01 -9.2034924030303955e-01</leafValues></_>
        <_>
          <internalNodes>
            0 -1 70 5.3095689509063959e-04</internalNodes>
          <leafValues>
            1.8171420693397522e-01 -7.2738540172576904e-01</leafValues></_>
        <_>
          <internalNodes>
            0 -1 57 -7.3431851342320442e-03</internalNodes>
          <leafValues>
            -3.7497529387474060e-01 4.3787878751754761e-01</leafValues></_></weakClassifiers></_>
    <!-- stage 9 -->
    <_>
      <maxWeakCount>8</maxWeakCount>
      <stageThreshold>-1.1647886037826538e+00</stageThreshold>
      <weakClassifiers>
        <_>
          <internalNodes>
            0 -1 68 3.2334276475012302e-03</internalNodes>
          <leafValues>
            -6.2500000000000000e-01 1.1160714179277420e-01</leafValues></_>
        <_>
          <internalNodes>
            0 -1 9 7.0259780623018742e-03</internalNodes>
          <leafValues>
            -7.8547650575637817e-01 1.7074540257453918e-01</leafValues></_>
        <_>
          <internalNodes>
            0 -1 35 5.4300134070217609e-04</internalNodes>
          <leafValues>
            -5.2964073419570923e-01 3.1691703200340271e-01</leafValues></_>
        <_>
          <internalNodes>
            0 -1 23 -1.5100194141268730e-02</internalNodes>
          <leafValues>
            2.4584358930587769e-01 -6.3959234952926636e-01</leafValues></_>
        <_>
          <internalNodes>
            0 -1 43 -7.8650303184986115e-03</internalNodes>
          <leafValues>
            -3.4944131970405579e-01 4.5594745874404907e-01</leafValues></_>
        <_>
          <internalNodes>
            0 -1 41 -2.6746208313852549e-03</internalNodes>
          <leafValues>
            1.7509223520755768e-01 -8.0000597238540649e-01</leafValues></_>
        <_>
          <internalNodes>
            0 -1 27 1.2030659243464470e-02</internalNodes>
          <leafValues>
            -3.2496941089630127e-01 4.8122036457061768e-01</leafValues></_>
        <_>
          <internalNodes>
            0 -1 48 1.3682400458492339e-04</internalNodes>
          <leafValues>
            2.2341474890708923e-01 -5.7986152172088623e-01</leafValues></_></weakClassifiers></_>
    <!-- stage 10 -->
    <_>
      <maxWeakCount>9</maxWeakCount>
      <stageThreshold>-1.0841268301010132e+00</stageThreshold>
      <weakClassifiers>
        <_>
          <internalNodes>
            0 -1 18 -1.7787328362464905e-01</internalNodes>
          <leafValues>
            5.5208331346511841e-01 -4.7383719682693481e-01</leafValues></_>
        <_>
          <internalNodes>
            0 -1 59 -3.4267039154656231e-04</internalNodes>
          <leafValues>
            2.4490849673748016e-01 -6.7591851949691772e-01</leafValues></_>
        <_>
          <internalNodes>
            0 -1 19 -6.5660819411277771e-02</internalNodes>
          <leafValues>
            6.5345996618270874e-01 -2.7475520968437195e-01</leafValues></_>
        <_>
          <internalNodes>
            0 -1 54 -2.1186667680740356e-01</internalNodes>
          <leafValues>
            1.8220973014831543e-01 -8.2144802808761597e-01</leafValues></_>
        <_>
          <internalNodes>
            0 -1 50 7.7383602038025856e-03</internalNodes>
          <leafValues>
            -3.8963279128074646e-01 3.3492693305015564e-01</leafValues></_>
        <_>
          <internalNodes>
            0 -1 12 -2.9089982854202390e-04</internalNodes>
          <leafValues>
            2.4781019985675812e-01 -6.3888883590698242e-01</leafValues></_>
        <_>
          <internalNodes>
            0 -1 17 3.7429532967507839e-03</internalNodes>
          <leafValues>
            1.1634151637554169e-01 -8.7821298837661743e-01</leafValues></_>
        <_>
          <internalNodes>
            0 -1 67 -3.3172134310007095e-02</internalNodes>
          <leafValues>
            4.4253870844841003e-01 -3.0655559897422791e-01</leafValues></_>
        <_>
          <internalNodes>
            0 -1 71 1.8018304836004972e-03</internalNodes>
          <leafValues>
            -2.1107304096221924e-01 5.6393855810165405e-01</leafValues></_></weakClassifiers></_>
    <!-- stage 11 -->
    <_>
      <maxWeakCount>10</maxWeakCount>
      <stageThreshold>-1.1192864179611206e+00</stageThreshold>
      <weakClassifiers>
        <_>
          <internalNodes>
            0 -1 66 -6.1875268816947937e-02</internalNodes>
          <leafValues>
            3.1800764799118042e-01 -4.8949918150901794e-01</leafValues></_>
        <_>
          <internalNodes>
            0 -1 73 2.1864257752895355e-02</internalNodes>
          <leafValues>
            -5.1893860101699829e-01 2.3937931656837463e-01</leafValues></_>
        <_>
          <internalNodes>
            0 -1 31 3.7323095602914691e-04</internalNodes>
          <leafValues>
            -5.4592454433441162e-01 2.3309041559696198e-01</leafValues></_>
        <_>
          <internalNodes>
            0 -1 1 -6.8718427792191505e-04</internalNodes>
          <leafValues>
            -6.0956853628158569e-01 2.2740423679351807e-01</leafValues></_>
        <_>
          <internalNodes>
            0 -1 37 -4.1075926274061203e-03</internalNodes>
          <leafValues>
            -6.4437162876129150e-01 1.6909329593181610e-01</leafValues></_>
        <_>
          <internalNodes>
            0 -1 22 5.7294256985187531e-03</internalNodes>
          <leafValues>
            1.3711988925933838e-01 -8.3524399995803833e-01</leafValues></_>
        <_>
          <internalNodes>
            0 -1 15 -4.1944353142753243e-04</internalNodes>
          <leafValues>
            3.1325459480285645e-01 -3.3304691314697266e-01</leafValues></_>
        <_>
          <internalNodes>
            0 -1 38 3.2195799052715302e-02</internalNodes>
          <leafValues>
            -3.0762615799903870e-01 3.5791417956352234e-01</leafValues></_>
        <_>
          <internalNodes>
            0 -1 36 -1.5216335654258728e-02</internalNodes>
          <leafValues>
            -2.3219712078571320e-01 5.3271424770355225e-01</leafValues></_>
        <_>
          <internalNodes>
            0 -1 58 -3.0052732676267624e-02</internalNodes>
          <leafValues>
            2.2189320623874664e-01 -5.0930124521255493e-01</leafValues></_></weakClassifiers></_></stages>
  <features>
    <_>
      <rects>
        <_>
          0 0 12 21 -1.</_>
        <_>
          4 0 4 21 2.</_></rects>
      <tilted>0</tilted></_>
    <_>
      <rects>
        <_>
          0 0 10 1 -1.</_>
        <_>
          5 0 5 1 2.</_></rects>
      <tilted>0</tilted></_>
    <_>
      <rects>
        <_>
          0 0 18 1 -1.</_>
        <_>
          6 0 6 1 2.</_></rects>
      <tilted>0</tilted></_>
    <_>
      <rects>
        <_>
          0 1 4 2 -1.</_>
        <_>
          2 1 2 2 2.</_></rects>
      <tilted>0</tilted></_>
    <_>
      <rects>
        <_>
          0 1 6 6 -1.</_>
        <_>
          3 1 3 6 2.</_></rects>
      <tilted>0</tilted></_>
    <_>
      <rects>
        <_>
          0 1 8 4 -1.</_>
        <_>
          4 1 4 4 2.</_></rects>
      <tilted>0</tilted></_>
    <_>
      <rects>
        <_>
          0 2 8 22 -1.</_>
        <_>
          4 2 4 22 2.</_></rects>
      <tilted>0</tilted></_>
    <_>
      <rects>
        <_>
          0 3 8 21 -1.</_>
        <_>
          4 3 4 21 2.</_></rects>
      <tilted>0</tilted></_>
    <_>
      <rects>
        <_>
          0 3 5 8 -1.</_>
        <_>
          0 7 5 4 2.</_></rects>
      <tilted>0</tilted></_>
    <_>
      <rects>
        <_>
          0 3 24 6 -1.</_>
        <_>
          0 6 24 3 2.</_></rects>
      <tilted>0</tilted></_>
    <_>
      <rects>
        <_>
          0 5 8 10 -1.</_>
        <_>
          4 5 4 10 2.</_></rects>
      <tilted>0</tilted></_>
    <_>
      <rects>
        <_>
          0 10 12 2 -1.</_>
        <_>
          4 10 4 2 2.</_></rects>
      <tilted>0</tilted></_>
    <_>
      <rects>
        <_>
          0 12 6 4 -1.</_>
        <_>
          3 12 3 4 2.</_></rects>
      <tilted>0</tilted></_>
    <_>
      <rects>
        <_>
          0 15 6 9 -1.</_>
        <_>
          3 15 3 9 2.</_></rects>
      <tilted>0</tilted></_>
    <_>
      <rects>
        <_>
          0 19 8 5 -1.</_>
        <_>
          4 19 4 5 2.</_></rects>
      <tilted>0</tilted></_>
    <_>
      <rects>
        <_>
          1 0 4 4 -1.</_>
        <_>
          1 0 2 2 2.</_>
        <_>
          3 2 2 2 2.</_></rects>
      <tilted>0</tilted></_>
    <_>
      <rects>
        <_>
          1 0 8 1 -1.</_>
        <_>
          5 0 4 1 2.</_></rects>
      <tilted>0</tilted></_>
    <_>
      <rects>
        <_>
          1 10 23 2 -1.</_>
        <_>
          1 11 23 1 2.</_></rects>
      <tilted>0</tilted></_>
    <_>
      <rects>
        <_>
          1 18 20 6 -1.</_>
        <_>
          1 21 20 3 2.</_></rects>
      <tilted>0</tilted></_>
    <_>
      <rects>
        <_>
          2 0 19 6 -1.</_>
        <_>
          2 3 19 3 2.</_></rects>
      <tilted>0</tilted></_>
    <_>
      <rects>
        <_>
          2 3 13 6 -1.</_>
        <_>
          2 6 13 3 2.</_></rects>
      <tilted>0</tilted></_>
    <_>
      <rects>
        <_>
          2 18 22 6 -1.</_>
        <_>
          2 21 22 3 2.</_></rects>
      <tilted>0</tilted></_>
    <_>
      <rects>
        <_>
          3 0 8 3 -1.</_>
        <_>
          7 0 4 3 2.</_></rects>
      <tilted>0</tilted></_>
    <_>
      <rects>
        <_>
          4 0 6 1 -1.</_>
        <_>
          6 0 2 1 2.</_></rects>
      <tilted>0</tilted></_>
    <_>
      <rects>
        <_>
          4 7 18 10 -1.</_>
        <_>
          4 12 18 5 2.</_></rects>
      <tilted>0</tilted></_>
    <_>
      <rects>
        <_>
          4 16 15 8 -1.</_>
        <_>
          4 20 15 4 2.</_></rects>
      <tilted>0</tilted></_>
    <_>
      <rects>
        <_>
          4 18 6 6 -1.</_>
        <_>
          4 21 6 3 2.</_></rects>
      <tilted>0</tilted></_>
    <_>
      <rects>
        <_>
          5 5 4 6 -1.</_>
        <_>
          7 5 2 6 2.</_></rects>
      <tilted>0</tilted></_>
    <_>
      <rects>
        <_>
          5 6 6 1 -1.</_>
        <_>
          8 6 3 1 2.</_></rects>
      <tilted>0</tilted></_>
    <_>
      <rects>
        <_>
          5 13 19 6 -1.</_>
        <_>
          5 16 19 3 2.</_></rects>
      <tilted>0</tilted></_>
    <_>
      <rects>
        <_>
          5 18 16 6 -1.</_>
        <_>
          5 21 16 3 2.</_></rects>
      <tilted>0</tilted></_>
    <_>
      <rects>
        <_>
          6 1 8 7 -1.</_>
        <_>
          10 1 4 7 2.</_></rects>
      <tilted>0</tilted></_>
    <_>
      <rects>
        <_>
          6 1 10 3 -1.</_>
        <_>
          11 1 5 3 2.</_></rects>
      <tilted>0</tilted></_>
    <_>
      <rects>
        <_>
          6 3 11 16 -1.</_>
        <_>
          6 11 11 8 2.</_></rects>
      <tilted>0</tilted></_>
    <_>
      <rects>
        <_>
          6 4 4 3 -1.</_>
        <_>
          8 4 2 3 2.</_></rects>
      <tilted>0</tilted></_>
    <_>
      <rects>
        <_>
          6 19 4 5 -1.</_>
        <_>
          8 19 2 5 2.</_></rects>
      <tilted>0</tilted></_>
    <_>
      <rects>
        <_>
          6 22 12 1 -1.</_>
        <_>
          10 22 4 1 2.</_></rects>
      <tilted>0</tilted></_>
    <_>
      <rects>
        <_>
          7 2 8 8 -1.</_>
        <_>
          7 2 4 4 2.</_>
        <_>
          11 6 4 4 2.</_></rects>
      <tilted>0</tilted></_>
    <_>
      <rects>
        <_>
          7 14 16 8 -1.</_>
        <_>
          7 18 16 4 2.</_></rects>
      <tilted>0</tilted></_>
    <_>
      <rects>
        <_>
          7 18 14 6 -1.</_>
        <_>
          7 21 14 3 2.</_></rects>
      <tilted>0</tilted></_>
    <_>
      <rects>
        <_>
          7 22 12 2 -1.</_>
        <_>
          11 22 4 2 2.</_></rects>
      <tilted>0</tilted></_>
    <_>
      <rects>
        <_>
          8 5 12 14 -1.</_>
        <_>
          8 12 12 7 2.</_></rects>
      <tilted>0</tilted></_>
    <_>
      <rects>
        <_>
          8 5 13 12 -1.</_>
        <_>
          8 11 13 6 2.</_></rects>
      <tilted>0</tilted></_>
    <_>
      <rects>
        <_>
          8 23 6 1 -1.</_>
        <_>
          10 23 2 1 2.</_></rects>
      <tilted>0</tilted></_>
    <_>
      <rects>
        <_>
          9 3 10 18 -1.</_>
        <_>
          9 12 10 9 2.</_></rects>
      <tilted>0</tilted></_>
    <_>
      <rects>
        <_>
          9 6 4 8 -1.</_>
        <_>
          9 10 4 4 2.</_></rects>
      <tilted>0</tilted></_>
    <_>
      <rects>
        <_>
          9 23 6 1 -1.</_>
        <_>
          11 23 2 1 2.</_></rects>
      <tilted>0</tilted></_>
    <_>
      <rects>
        <_>
          10 0 6 5 -1.</_>
        <_>
          13 0 3 5 2.</_></rects>
      <tilted>0</tilted></_>
    <_>
      <rects>
        <_>
          10 6 5 2 -1.</_>
        <_>
          10 7 5 1 2.</_></rects>
      <tilted>0</tilted></_>
    <_>
      <rects>
        <_>
          11 0 10 8 -1.</_>
        <_>
          11 0 5 4 2.</_>
        <_>
          16 4 5 4 2.</_></rects>
      <tilted>0</tilted></_>
    <_>
      <rects>
        <_>
          11 2 13 4 -1.</_>
        <_>
          11 4 13 2 2.</_></rects>
      <tilted>0</tilted></_>
    <_>
      <rects>
        <_>
          11 5 10 2 -1.</_>
        <_>
          16 5 5 2 2.</_></rects>
      <tilted>0</tilted></_>
    <_>
      <rects>
        <_>
          11 6 2 4 -1.</_>
        <_>
          11 8 2 2 2.</_></rects>
      <tilted>0</tilted></_>
    <_>
      <rects>
        <_>
          11 6 4 4 -1.</_>
        <_>
          11 8 4 2 2.</_></rects>
      <tilted>0</tilted></_>
    <_>
      <rects>
        <_>
          11 8 11 9 -1.</_>
        <_>
          11 11 11 3 2.</_></rects>
      <tilted>0</tilted></_>
    <_>
      <rects>
        <_>
          11 8 12 8 -1.</_>
        <_>
          11 12 12 4 2.</_></rects>
      <tilted>0</tilted></_>
    <_>
      <rects>
        <_>
          11 14 10 1 -1.</_>
        <_>
          16 14 5 1 2.</_></rects>
      <tilted>0</tilted></_>
    <_>
      <rects>
        <_>
          11 23 6 1 -1.</_>
        <_>
          13 23 2 1 2.</_></rects>
      <tilted>0</tilted></_>
    <_>
      <rects>
        <_>
          12 1 1 15 -1.</_>
        <_>
          12 6 1 5 2.</_></rects>
      <tilted>0</tilted></_>
    <_>
      <rects>
        <_>
          12 5 8 2 -1.</_>
        <_>
          16 5 4 2 2.</_></rects>
      <tilted>0</tilted></_>
    <_>
      <rects>
        <_>
          12 5 4 18 -1.</_>
        <_>
          12 14 4 9 2.</_></rects>
      <tilted>0</tilted></_>
    <_>
      <rects>
        <_>
          12 5 5 12 -1.</_>
        <_>
          12 11 5 6 2.</_></rects>
      <tilted>0</tilted></_>
    <_>
      <rects>
        <_>
          13 2 2 8 -1.</_>
        <_>
          13 6 2 4 2.</_></rects>
      <tilted>0</tilted></_>
    <_>
      <rects>
        <_>
          13 6 2 4 -1.</_>
        <_>
          13 8 2 2 2.</_></rects>
      <tilted>0</tilted></_>
    <_>
      <rects>
        <_>
          13 8 8 1 -1.</_>
        <_>
          17 8 4 1 2.</_></rects>
      <tilted>0</tilted></_>
    <_>
      <rects>
        <_>
          14 0 9 7 -1.</_>
        <_>
          17 0 3 7 2.</_></rects>
      <tilted>0</tilted></_>
    <_>
      <rects>
        <_>
          14 16 6 8 -1.</_>
        <_>
          14 20 6 4 2.</_></rects>
      <tilted>0</tilted></_>
    <_>
      <rects>
        <_>
          15 4 6 20 -1.</_>
        <_>
          18 4 3 20 2.</_></rects>
      <tilted>0</tilted></_>
    <_>
      <rects>
        <_>
          16 7 8 2 -1.</_>
        <_>
          20 7 4 2 2.</_></rects>
      <tilted>0</tilted></_>
    <_>
      <rects>
        <_>
          17 0 6 1 -1.</_>
        <_>
          19 0 2 1 2.</_></rects>
      <tilted>0</tilted></_>
    <_>
      <rects>
        <_>
          17 0 6 1 -1.</_>
        <_>
          20 0 3 1 2.</_></rects>
      <tilted>0</tilted></_>
    <_>
      <rects>
        <_>
          17 16 3 2 -1.</_>
        <_>
          17 17 3 1 2.</_></rects>
      <tilted>0</tilted></_>
    <_>
      <rects>
        <_>
          18 0 6 24 -1.</_>
        <_>
          21 0 3 24 2.</_></rects>
      <tilted>0</tilted></_>
    <_>
      <rects>
        <_>
          18 4 6 14 -1.</_>
        <_>
          21 4 3 14 2.</_></rects>
      <tilted>0</tilted></_>
    <_>
      <rects>
        <_>
          18 4 6 20 -1.</_>
        <_>
          21 4 3 20 2.</_></rects>
      <tilted>0</tilted></_>
    <_>
      <rects>
        <_>
          18 4 6 6 -1.</_>
        <_>
          18 7 6 3 2.</_></rects>
      <tilted>0</tilted></_>
    <_>
      <rects>
        <_>
          18 9 6 15 -1.</_>
        <_>
          21 9 3 15 2.</_></rects>
      <tilted>0</tilted></_>
    <_>
      <rects>
        <_>
          18 12 6 5 -1.</_>
        <_>
          21 12 3 5 2.</_></rects>
      <tilted>0</tilted></_>
    <_>
      <rects>
        <_>
          18 21 6 3 -1.</_>
        <_>
          21 21 3 3 2.</_></rects>
      <tilted>0</tilted></_>
    <_>
      <rects>
        <_>
          20 1 4 14 -1.</_>
        <_>
          22 1 2 14 2.</_></rects>
      <tilted>0</tilted></_>
    <_>
      <rects>
        <_>
          20 18 4 6 -1.</_>
        <_>
          22 18 2 6 2.</_></rects>
      <tilted>0</tilted></_></features></cascade>
</opencv_storage>
