<?xml version="1.0"?>
<opencv_storage>
<stage8>
  <maxWeakCount>8</maxWeakCount>
  <stageThreshold>-1.1216447353363037e+00</stageThreshold>
  <weakClassifiers>
    <_>
      <internalNodes>
        0 -1 117618 7.6327926944941282e-04</internalNodes>
      <leafValues>
        -1.6897082328796387e-02 -9.1266375780105591e-01</leafValues></_>
    <_>
      <internalNodes>
        0 -1 106980 -4.5276619493961334e-03</internalNodes>
      <leafValues>
        -8.1957632303237915e-01 1.4352329075336456e-01</leafValues></_>
    <_>
      <internalNodes>
        0 -1 93619 -1.6255319118499756e-02</internalNodes>
      <leafValues>
        1.7424535751342773e-01 -8.1827193498611450e-01</leafValues></_>
    <_>
      <internalNodes>
        0 -1 73654 -1.1140578985214233e-01</internalNodes>
      <leafValues>
        -8.9430838823318481e-01 1.7116601765155792e-01</leafValues></_>
    <_>
      <internalNodes>
        0 -1 154482 1.5700105577707291e-02</internalNodes>
      <leafValues>
        -4.7125568985939026e-01 3.2874444127082825e-01</leafValues></_>
    <_>
      <internalNodes>
        0 -1 1184 3.0030781636014581e-04</internalNodes>
      <leafValues>
        1.5911826491355896e-01 -9.2034924030303955e-01</leafValues></_>
    <_>
      <internalNodes>
        0 -1 148460 5.3095689509063959e-04</internalNodes>
      <leafValues>
        1.8171420693397522e-01 -7.2738540172576904e-01</leafValues></_>
    <_>
      <internalNodes>
        0 -1 121337 -7.3431851342320442e-03</internalNodes>
      <leafValues>
        -3.7497529387474060e-01 4.3787878751754761e-01</leafValues></_></weakClassifiers></stage8>
</opencv_storage>
