<?xml version="1.0"?>
<opencv_storage>
<stage7>
  <maxWeakCount>8</maxWeakCount>
  <stageThreshold>-1.3113852739334106e+00</stageThreshold>
  <weakClassifiers>
    <_>
      <internalNodes>
        0 -1 1344 -5.7183317840099335e-03</internalNodes>
      <leafValues>
        1.4345991611480713e-01 -7.0935958623886108e-01</leafValues></_>
    <_>
      <internalNodes>
        0 -1 68902 1.4953106641769409e-02</internalNodes>
      <leafValues>
        -5.7611298561096191e-01 3.2897907495498657e-01</leafValues></_>
    <_>
      <internalNodes>
        0 -1 114747 -3.6018108949065208e-03</internalNodes>
      <leafValues>
        2.5629845261573792e-01 -6.1961859464645386e-01</leafValues></_>
    <_>
      <internalNodes>
        0 -1 106791 -6.6975662484765053e-03</internalNodes>
      <leafValues>
        -2.9739147424697876e-01 5.4492384195327759e-01</leafValues></_>
    <_>
      <internalNodes>
        0 -1 133948 -1.5538898110389709e-01</internalNodes>
      <leafValues>
        2.9102972149848938e-01 -6.5337771177291870e-01</leafValues></_>
    <_>
      <internalNodes>
        0 -1 3424 1.7384744714945555e-03</internalNodes>
      <leafValues>
        -6.0276168584823608e-01 2.4829301238059998e-01</leafValues></_>
    <_>
      <internalNodes>
        0 -1 71854 8.9527983218431473e-03</internalNodes>
      <leafValues>
        9.9425576627254486e-02 -8.7432998418807983e-01</leafValues></_>
    <_>
      <internalNodes>
        0 -1 73852 3.7895620334893465e-04</internalNodes>
      <leafValues>
        -5.1265001296997070e-01 2.6108846068382263e-01</leafValues></_></weakClassifiers></stage7>
</opencv_storage>
