<?xml version="1.0"?>
<opencv_storage>
<stage1>
  <maxWeakCount>5</maxWeakCount>
  <stageThreshold>-2.0960955619812012e+00</stageThreshold>
  <weakClassifiers>
    <_>
      <internalNodes>
        0 -1 152099 6.5111085772514343e-02</internalNodes>
      <leafValues>
        -7.0508474111557007e-01 6.7586207389831543e-01</leafValues></_>
    <_>
      <internalNodes>
        0 -1 11569 -1.2437496334314346e-02</internalNodes>
      <leafValues>
        5.0504457950592041e-01 -6.8829554319381714e-01</leafValues></_>
    <_>
      <internalNodes>
        0 -1 114747 -1.3673824723809958e-03</internalNodes>
      <leafValues>
        4.3407586216926575e-01 -7.4227833747863770e-01</leafValues></_>
    <_>
      <internalNodes>
        0 -1 59841 -3.4735158085823059e-02</internalNodes>
      <leafValues>
        8.3978670835494995e-01 -4.1138282418251038e-01</leafValues></_>
    <_>
      <internalNodes>
        0 -1 4067 7.1825673803687096e-03</internalNodes>
      <leafValues>
        -7.4239432811737061e-01 4.3559277057647705e-01</leafValues></_></weakClassifiers></stage1>
</opencv_storage>
