<?xml version="1.0"?>
<opencv_storage>
<stage10>
  <maxWeakCount>9</maxWeakCount>
  <stageThreshold>-1.0841268301010132e+00</stageThreshold>
  <weakClassifiers>
    <_>
      <internalNodes>
        0 -1 25245 -1.7787328362464905e-01</internalNodes>
      <leafValues>
        5.5208331346511841e-01 -4.7383719682693481e-01</leafValues></_>
    <_>
      <internalNodes>
        0 -1 124027 -3.4267039154656231e-04</internalNodes>
      <leafValues>
        2.4490849673748016e-01 -6.7591851949691772e-01</leafValues></_>
    <_>
      <internalNodes>
        0 -1 26732 -6.5660819411277771e-02</internalNodes>
      <leafValues>
        6.5345996618270874e-01 -2.7475520968437195e-01</leafValues></_>
    <_>
      <internalNodes>
        0 -1 118591 -2.1186667680740356e-01</internalNodes>
      <leafValues>
        1.8220973014831543e-01 -8.2144802808761597e-01</leafValues></_>
    <_>
      <internalNodes>
        0 -1 116018 7.7383602038025856e-03</internalNodes>
      <leafValues>
        -3.8963279128074646e-01 3.3492693305015564e-01</leafValues></_>
    <_>
      <internalNodes>
        0 -1 10103 -2.9089982854202390e-04</internalNodes>
      <leafValues>
        2.4781019985675812e-01 -6.3888883590698242e-01</leafValues></_>
    <_>
      <internalNodes>
        0 -1 22129 3.7429532967507839e-03</internalNodes>
      <leafValues>
        1.1634151637554169e-01 -8.7821298837661743e-01</leafValues></_>
    <_>
      <internalNodes>
        0 -1 140895 -3.3172134310007095e-02</internalNodes>
      <leafValues>
        4.4253870844841003e-01 -3.0655559897422791e-01</leafValues></_>
    <_>
      <internalNodes>
        0 -1 151534 1.8018304836004972e-03</internalNodes>
      <leafValues>
        -2.1107304096221924e-01 5.6393855810165405e-01</leafValues></_></weakClassifiers></stage10>
</opencv_storage>
