<?xml version="1.0"?>
<opencv_storage>
<cascade>
  <stageType>BOOST</stageType>
  <featureType>HAAR</featureType>
  <height>24</height>
  <width>24</width>
  <stageParams>
    <boostType>GAB</boostType>
    <minHitRate>9.9500000476837158e-01</minHitRate>
    <maxFalseAlarm>5.0000000000000000e-01</maxFalseAlarm>
    <weightTrimRate>9.4999999999999996e-01</weightTrimRate>
    <maxDepth>1</maxDepth>
    <maxWeakCount>100</maxWeakCount></stageParams>
  <featureParams>
    <maxCatCount>0</maxCatCount>
    <featSize>1</featSize>
    <mode>BASIC</mode></featureParams>
  <stageNum>19</stageNum>
  <stages>
    <!-- stage 0 -->
    <_>
      <maxWeakCount>2</maxWeakCount>
      <stageThreshold>2.5348821654915810e-03</stageThreshold>
      <weakClassifiers>
        <_>
          <internalNodes>
            0 -1 43 -1.5150994062423706e-01</internalNodes>
          <leafValues>
            -9.4999998807907104e-01 9.7500002384185791e-01</leafValues></_>
        <_>
          <internalNodes>
            0 -1 18 -5.6145779788494110e-02</internalNodes>
          <leafValues>
            9.5253485441207886e-01 -9.3543577194213867e-01</leafValues></_></weakClassifiers></_>
    <!-- stage 1 -->
    <_>
      <maxWeakCount>3</maxWeakCount>
      <stageThreshold>-4.4777071475982666e-01</stageThreshold>
      <weakClassifiers>
        <_>
          <internalNodes>
            0 -1 0 -5.3741633892059326e-02</internalNodes>
          <leafValues>
            8.9542484283447266e-01 -6.5517240762710571e-01</leafValues></_>
        <_>
          <internalNodes>
            0 -1 19 -8.6653925478458405e-02</internalNodes>
          <leafValues>
            9.5959305763244629e-01 -6.3085782527923584e-01</leafValues></_>
        <_>
          <internalNodes>
            0 -1 22 8.5400879383087158e-02</internalNodes>
          <leafValues>
            -6.8967533111572266e-01 8.3825951814651489e-01</leafValues></_></weakClassifiers></_>
    <!-- stage 2 -->
    <_>
      <maxWeakCount>4</maxWeakCount>
      <stageThreshold>-1.4176693558692932e-01</stageThreshold>
      <weakClassifiers>
        <_>
          <internalNodes>
            0 -1 25 -4.1217756271362305e-01</internalNodes>
          <leafValues>
            -9.2727273702621460e-01 7.0810812711715698e-01</leafValues></_>
        <_>
          <internalNodes>
            0 -1 47 -1.1701053939759731e-02</internalNodes>
          <leafValues>
            6.8463194370269775e-01 -7.2469902038574219e-01</leafValues></_>
        <_>
          <internalNodes>
            0 -1 50 -7.8664673492312431e-04</internalNodes>
          <leafValues>
            6.6340881586074829e-01 -7.1037888526916504e-01</leafValues></_>
        <_>
          <internalNodes>
            0 -1 37 1.3434154912829399e-02</internalNodes>
          <leafValues>
            -6.0005384683609009e-01 8.4679603576660156e-01</leafValues></_></weakClassifiers></_>
    <!-- stage 3 -->
    <_>
      <maxWeakCount>2</maxWeakCount>
      <stageThreshold>-1.0878810659050941e-02</stageThreshold>
      <weakClassifiers>
        <_>
          <internalNodes>
            0 -1 67 3.9015412330627441e-02</internalNodes>
          <leafValues>
            -5.2808988094329834e-01 8.4105962514877319e-01</leafValues></_>
        <_>
          <internalNodes>
            0 -1 12 -2.5373413227498531e-03</internalNodes>
          <leafValues>
            6.5096223354339600e-01 -8.5193842649459839e-01</leafValues></_></weakClassifiers></_>
    <!-- stage 4 -->
    <_>
      <maxWeakCount>4</maxWeakCount>
      <stageThreshold>-2.2922940552234650e-01</stageThreshold>
      <weakClassifiers>
        <_>
          <internalNodes>
            0 -1 31 7.8603610396385193e-02</internalNodes>
          <leafValues>
            -6.0493826866149902e-01 8.1132078170776367e-01</leafValues></_>
        <_>
          <internalNodes>
            0 -1 3 -9.5556247979402542e-03</internalNodes>
          <leafValues>
            4.9535447359085083e-01 -9.7684699296951294e-01</leafValues></_>
        <_>
          <internalNodes>
            0 -1 38 -2.1106258034706116e-02</internalNodes>
          <leafValues>
            -5.0181490182876587e-01 8.3585870265960693e-01</leafValues></_>
        <_>
          <internalNodes>
            0 -1 28 -6.5958220511674881e-04</internalNodes>
          <leafValues>
            3.8216930627822876e-01 -9.9091982841491699e-01</leafValues></_></weakClassifiers></_>
    <!-- stage 5 -->
    <_>
      <maxWeakCount>3</maxWeakCount>
      <stageThreshold>-2.6544779539108276e-01</stageThreshold>
      <weakClassifiers>
        <_>
          <internalNodes>
            0 -1 36 8.9012637734413147e-02</internalNodes>
          <leafValues>
            -5.1807230710983276e-01 7.8343951702117920e-01</leafValues></_>
        <_>
          <internalNodes>
            0 -1 66 5.8054495602846146e-02</internalNodes>
          <leafValues>
            -5.6441521644592285e-01 6.8550372123718262e-01</leafValues></_>
        <_>
          <internalNodes>
            0 -1 30 2.8044760227203369e-02</internalNodes>
          <leafValues>
            -4.3287920951843262e-01 8.7953859567642212e-01</leafValues></_></weakClassifiers></_>
    <!-- stage 6 -->
    <_>
      <maxWeakCount>3</maxWeakCount>
      <stageThreshold>-1.6348788142204285e-01</stageThreshold>
      <weakClassifiers>
        <_>
          <internalNodes>
            0 -1 14 -6.6318690776824951e-02</internalNodes>
          <leafValues>
            7.4358975887298584e-01 -4.2857143282890320e-01</leafValues></_>
        <_>
          <internalNodes>
            0 -1 39 -3.3949889242649078e-02</internalNodes>
          <leafValues>
            -3.9467453956604004e-01 8.2769477367401123e-01</leafValues></_>
        <_>
          <internalNodes>
            0 -1 7 -1.6630816389806569e-04</internalNodes>
          <leafValues>
            6.5975809097290039e-01 -4.6705746650695801e-01</leafValues></_></weakClassifiers></_>
    <!-- stage 7 -->
    <_>
      <maxWeakCount>4</maxWeakCount>
      <stageThreshold>-6.7188777029514313e-02</stageThreshold>
      <weakClassifiers>
        <_>
          <internalNodes>
            0 -1 6 6.5177217125892639e-02</internalNodes>
          <leafValues>
            -4.4444444775581360e-01 8.0000001192092896e-01</leafValues></_>
        <_>
          <internalNodes>
            0 -1 54 -5.6312251836061478e-03</internalNodes>
          <leafValues>
            5.1266378164291382e-01 -8.1714880466461182e-01</leafValues></_>
        <_>
          <internalNodes>
            0 -1 35 2.0827390253543854e-02</internalNodes>
          <leafValues>
            -5.4731070995330811e-01 7.7363651990890503e-01</leafValues></_>
        <_>
          <internalNodes>
            0 -1 70 -2.1000372362323105e-04</internalNodes>
          <leafValues>
            -8.1214386224746704e-01 4.2076793313026428e-01</leafValues></_></weakClassifiers></_>
    <!-- stage 8 -->
    <_>
      <maxWeakCount>5</maxWeakCount>
      <stageThreshold>-4.9687004089355469e-01</stageThreshold>
      <weakClassifiers>
        <_>
          <internalNodes>
            0 -1 24 4.9448758363723755e-02</internalNodes>
          <leafValues>
            -5.2941179275512695e-01 6.7441862821578979e-01</leafValues></_>
        <_>
          <internalNodes>
            0 -1 51 2.9925778508186340e-02</internalNodes>
          <leafValues>
            -3.3839273452758789e-01 9.4193750619888306e-01</leafValues></_>
        <_>
          <internalNodes>
            0 -1 1 -6.7796267569065094e-02</internalNodes>
          <leafValues>
            6.0725635290145874e-01 -5.7926863431930542e-01</leafValues></_>
        <_>
          <internalNodes>
            0 -1 56 1.0132453171536326e-03</internalNodes>
          <leafValues>
            -6.7773610353469849e-01 5.0959581136703491e-01</leafValues></_>
        <_>
          <internalNodes>
            0 -1 20 -2.2164321853779256e-04</internalNodes>
          <leafValues>
            5.8728080987930298e-01 -7.6322311162948608e-01</leafValues></_></weakClassifiers></_>
    <!-- stage 9 -->
    <_>
      <maxWeakCount>5</maxWeakCount>
      <stageThreshold>-4.1092443466186523e-01</stageThreshold>
      <weakClassifiers>
        <_>
          <internalNodes>
            0 -1 53 -3.2437406480312347e-02</internalNodes>
          <leafValues>
            8.9795917272567749e-01 -5.6338027119636536e-02</leafValues></_>
        <_>
          <internalNodes>
            0 -1 34 3.8301132619380951e-02</internalNodes>
          <leafValues>
            -2.2505833208560944e-01 9.0671086311340332e-01</leafValues></_>
        <_>
          <internalNodes>
            0 -1 69 -6.3708180096000433e-04</internalNodes>
          <leafValues>
            6.5823662281036377e-01 -4.2490375041961670e-01</leafValues></_>
        <_>
          <internalNodes>
            0 -1 49 -2.1504320204257965e-02</internalNodes>
          <leafValues>
            7.0182836055755615e-01 -3.4471443295478821e-01</leafValues></_>
        <_>
          <internalNodes>
            0 -1 46 -1.1186632513999939e-01</internalNodes>
          <leafValues>
            8.8911134004592896e-01 -3.1420710682868958e-01</leafValues></_></weakClassifiers></_>
    <!-- stage 10 -->
    <_>
      <maxWeakCount>6</maxWeakCount>
      <stageThreshold>-8.3205896615982056e-01</stageThreshold>
      <weakClassifiers>
        <_>
          <internalNodes>
            0 -1 16 -1.2656761333346367e-02</internalNodes>
          <leafValues>
            7.2327041625976562e-01 -4.3209877610206604e-01</leafValues></_>
        <_>
          <internalNodes>
            0 -1 42 -1.0126261413097382e-01</internalNodes>
          <leafValues>
            -7.2495257854461670e-01 5.0544601678848267e-01</leafValues></_>
        <_>
          <internalNodes>
            0 -1 55 3.9120092988014221e-02</internalNodes>
          <leafValues>
            -3.2836160063743591e-01 8.7285244464874268e-01</leafValues></_>
        <_>
          <internalNodes>
            0 -1 26 -5.1855938509106636e-03</internalNodes>
          <leafValues>
            4.6774429082870483e-01 -6.7872446775436401e-01</leafValues></_>
        <_>
          <internalNodes>
            0 -1 64 6.1755795031785965e-03</internalNodes>
          <leafValues>
            -6.4721679687500000e-01 4.7460049390792847e-01</leafValues></_>
        <_>
          <internalNodes>
            0 -1 29 4.1741058230400085e-02</internalNodes>
          <leafValues>
            -3.7292063236236572e-01 8.0196404457092285e-01</leafValues></_></weakClassifiers></_>
    <!-- stage 11 -->
    <_>
      <maxWeakCount>3</maxWeakCount>
      <stageThreshold>4.1773450374603271e-01</stageThreshold>
      <weakClassifiers>
        <_>
          <internalNodes>
            0 -1 15 -1.3940022327005863e-03</internalNodes>
          <leafValues>
            5.8549225330352783e-01 -7.0212763547897339e-01</leafValues></_>
        <_>
          <internalNodes>
            0 -1 62 -9.5621645450592041e-03</internalNodes>
          <leafValues>
            5.3055483102798462e-01 -7.4263602495193481e-01</leafValues></_>
        <_>
          <internalNodes>
            0 -1 32 -4.8038028180599213e-02</internalNodes>
          <leafValues>
            -6.9831258058547974e-01 5.8930981159210205e-01</leafValues></_></weakClassifiers></_>
    <!-- stage 12 -->
    <_>
      <maxWeakCount>4</maxWeakCount>
      <stageThreshold>-7.6820366084575653e-02</stageThreshold>
      <weakClassifiers>
        <_>
          <internalNodes>
            0 -1 45 -7.4973411858081818e-02</internalNodes>
          <leafValues>
            5.7425743341445923e-01 -9.4736844301223755e-01</leafValues></_>
        <_>
          <internalNodes>
            0 -1 65 -2.4250439309980720e-04</internalNodes>
          <leafValues>
            6.2235206365585327e-01 -4.5123663544654846e-01</leafValues></_>
        <_>
          <internalNodes>
            0 -1 9 -2.1823866292834282e-02</internalNodes>
          <leafValues>
            4.9469360709190369e-01 -8.3351558446884155e-01</leafValues></_>
        <_>
          <internalNodes>
            0 -1 61 -1.8138989806175232e-02</internalNodes>
          <leafValues>
            9.0172743797302246e-01 -4.3991428613662720e-01</leafValues></_></weakClassifiers></_>
    <!-- stage 13 -->
    <_>
      <maxWeakCount>6</maxWeakCount>
      <stageThreshold>-4.2228713631629944e-01</stageThreshold>
      <weakClassifiers>
        <_>
          <internalNodes>
            0 -1 57 -1.0209567844867706e-03</internalNodes>
          <leafValues>
            8.6206895112991333e-01 -1.6129031777381897e-01</leafValues></_>
        <_>
          <internalNodes>
            0 -1 74 -1.3168681412935257e-02</internalNodes>
          <leafValues>
            5.9653890132904053e-01 -6.2290304899215698e-01</leafValues></_>
        <_>
          <internalNodes>
            0 -1 10 4.2351707816123962e-02</internalNodes>
          <leafValues>
            -3.6007183790206909e-01 7.4354761838912964e-01</leafValues></_>
        <_>
          <internalNodes>
            0 -1 60 -5.5250460281968117e-03</internalNodes>
          <leafValues>
            6.4454287290573120e-01 -3.9751601219177246e-01</leafValues></_>
        <_>
          <internalNodes>
            0 -1 21 1.2253305874764919e-02</internalNodes>
          <leafValues>
            -7.2773897647857666e-01 3.8640400767326355e-01</leafValues></_>
        <_>
          <internalNodes>
            0 -1 72 -2.7952613891102374e-04</internalNodes>
          <leafValues>
            7.3309010267257690e-01 -4.4519695639610291e-01</leafValues></_></weakClassifiers></_>
    <!-- stage 14 -->
    <_>
      <maxWeakCount>4</maxWeakCount>
      <stageThreshold>-3.1110206246376038e-01</stageThreshold>
      <weakClassifiers>
        <_>
          <internalNodes>
            0 -1 8 -2.2925280034542084e-01</internalNodes>
          <leafValues>
            -8.9743590354919434e-01 5.7213932275772095e-01</leafValues></_>
        <_>
          <internalNodes>
            0 -1 23 1.2230539321899414e-01</internalNodes>
          <leafValues>
            -6.0096532106399536e-01 6.7929124832153320e-01</leafValues></_>
        <_>
          <internalNodes>
            0 -1 44 -6.4840018749237061e-03</internalNodes>
          <leafValues>
            -8.1146413087844849e-01 4.4120284914970398e-01</leafValues></_>
        <_>
          <internalNodes>
            0 -1 68 9.6699371933937073e-03</internalNodes>
          <leafValues>
            -6.5636873245239258e-01 5.2918809652328491e-01</leafValues></_></weakClassifiers></_>
    <!-- stage 15 -->
    <_>
      <maxWeakCount>4</maxWeakCount>
      <stageThreshold>-1.0202002525329590e+00</stageThreshold>
      <weakClassifiers>
        <_>
          <internalNodes>
            0 -1 58 -1.5822696150280535e-04</internalNodes>
          <leafValues>
            -4.9295774102210999e-01 6.8047338724136353e-01</leafValues></_>
        <_>
          <internalNodes>
            0 -1 73 -3.1600467860698700e-02</internalNodes>
          <leafValues>
            -8.8441592454910278e-01 3.9821285009384155e-01</leafValues></_>
        <_>
          <internalNodes>
            0 -1 27 8.1054801121354103e-03</internalNodes>
          <leafValues>
            -5.0374197959899902e-01 8.1582701206207275e-01</leafValues></_>
        <_>
          <internalNodes>
            0 -1 41 -2.0416947081685066e-03</internalNodes>
          <leafValues>
            7.3991715908050537e-01 -4.5865353941917419e-01</leafValues></_></weakClassifiers></_>
    <!-- stage 16 -->
    <_>
      <maxWeakCount>5</maxWeakCount>
      <stageThreshold>-2.5831988453865051e-01</stageThreshold>
      <weakClassifiers>
        <_>
          <internalNodes>
            0 -1 17 -1.8255406618118286e-01</internalNodes>
          <leafValues>
            -1. 5.0234740972518921e-01</leafValues></_>
        <_>
          <internalNodes>
            0 -1 52 -4.8715446144342422e-02</internalNodes>
          <leafValues>
            9.3316924571990967e-01 -2.7359417080879211e-01</leafValues></_>
        <_>
          <internalNodes>
            0 -1 5 -5.8350197970867157e-02</internalNodes>
          <leafValues>
            9.8678445816040039e-01 -3.1370571255683899e-01</leafValues></_>
        <_>
          <internalNodes>
            0 -1 48 -2.8357934206724167e-04</internalNodes>
          <leafValues>
            4.5988088846206665e-01 -7.0004326105117798e-01</leafValues></_>
        <_>
          <internalNodes>
            0 -1 4 -5.8611001819372177e-02</internalNodes>
          <leafValues>
            5.2667582035064697e-01 -6.0616868734359741e-01</leafValues></_></weakClassifiers></_>
    <!-- stage 17 -->
    <_>
      <maxWeakCount>5</maxWeakCount>
      <stageThreshold>-3.3987277746200562e-01</stageThreshold>
      <weakClassifiers>
        <_>
          <internalNodes>
            0 -1 2 1.3544313842430711e-03</internalNodes>
          <leafValues>
            7.4834436178207397e-01 -3.7078651785850525e-01</leafValues></_>
        <_>
          <internalNodes>
            0 -1 33 -1.1216387152671814e-02</internalNodes>
          <leafValues>
            5.6948453187942505e-01 -7.7484184503555298e-01</leafValues></_>
        <_>
          <internalNodes>
            0 -1 40 -2.9663376510143280e-02</internalNodes>
          <leafValues>
            1. -4.5802003145217896e-01</leafValues></_>
        <_>
          <internalNodes>
            0 -1 11 -4.1396416723728180e-02</internalNodes>
          <leafValues>
            1. -4.1835787892341614e-01</leafValues></_>
        <_>
          <internalNodes>
            0 -1 63 2.4601502809673548e-04</internalNodes>
          <leafValues>
            5.6300258636474609e-01 -6.7925578355789185e-01</leafValues></_></weakClassifiers></_>
    <!-- stage 18 -->
    <_>
      <maxWeakCount>3</maxWeakCount>
      <stageThreshold>-4.4268539547920227e-01</stageThreshold>
      <weakClassifiers>
        <_>
          <internalNodes>
            0 -1 59 -7.4535794556140900e-04</internalNodes>
          <leafValues>
            -5.6862747669219971e-01 1.</leafValues></_>
        <_>
          <internalNodes>
            0 -1 13 -1.1314500123262405e-02</internalNodes>
          <leafValues>
            -5.7128942012786865e-01 1.</leafValues></_>
        <_>
          <internalNodes>
            0 -1 71 -5.4166396148502827e-03</internalNodes>
          <leafValues>
            -8.7405794858932495e-01 8.5429126024246216e-01</leafValues></_></weakClassifiers></_></stages>
  <features>
    <_>
      <rects>
        <_>
          0 3 8 20 -1.</_>
        <_>
          4 3 4 20 2.</_></rects>
      <tilted>0</tilted></_>
    <_>
      <rects>
        <_>
          0 4 10 8 -1.</_>
        <_>
          5 4 5 8 2.</_></rects>
      <tilted>0</tilted></_>
    <_>
      <rects>
        <_>
          0 6 8 4 -1.</_>
        <_>
          0 8 8 2 2.</_></rects>
      <tilted>0</tilted></_>
    <_>
      <rects>
        <_>
          0 7 2 3 -1.</_>
        <_>
          0 8 2 1 2.</_></rects>
      <tilted>0</tilted></_>
    <_>
      <rects>
        <_>
          0 7 8 16 -1.</_>
        <_>
          4 7 4 16 2.</_></rects>
      <tilted>0</tilted></_>
    <_>
      <rects>
        <_>
          0 8 8 6 -1.</_>
        <_>
          4 8 4 6 2.</_></rects>
      <tilted>0</tilted></_>
    <_>
      <rects>
        <_>
          0 8 21 8 -1.</_>
        <_>
          0 12 21 4 2.</_></rects>
      <tilted>0</tilted></_>
    <_>
      <rects>
        <_>
          0 21 6 1 -1.</_>
        <_>
          3 21 3 1 2.</_></rects>
      <tilted>0</tilted></_>
    <_>
      <rects>
        <_>
          1 1 21 4 -1.</_>
        <_>
          8 1 7 4 2.</_></rects>
      <tilted>0</tilted></_>
    <_>
      <rects>
        <_>
          1 3 8 13 -1.</_>
        <_>
          5 3 4 13 2.</_></rects>
      <tilted>0</tilted></_>
    <_>
      <rects>
        <_>
          1 5 8 12 -1.</_>
        <_>
          1 5 4 6 2.</_>
        <_>
          5 11 4 6 2.</_></rects>
      <tilted>0</tilted></_>
    <_>
      <rects>
        <_>
          1 7 8 3 -1.</_>
        <_>
          5 7 4 3 2.</_></rects>
      <tilted>0</tilted></_>
    <_>
      <rects>
        <_>
          2 5 15 2 -1.</_>
        <_>
          2 6 15 1 2.</_></rects>
      <tilted>0</tilted></_>
    <_>
      <rects>
        <_>
          2 12 3 8 -1.</_>
        <_>
          2 16 3 4 2.</_></rects>
      <tilted>0</tilted></_>
    <_>
      <rects>
        <_>
          2 16 22 8 -1.</_>
        <_>
          2 20 22 4 2.</_></rects>
      <tilted>0</tilted></_>
    <_>
      <rects>
        <_>
          3 5 13 2 -1.</_>
        <_>
          3 6 13 1 2.</_></rects>
      <tilted>0</tilted></_>
    <_>
      <rects>
        <_>
          3 14 6 10 -1.</_>
        <_>
          3 19 6 5 2.</_></rects>
      <tilted>0</tilted></_>
    <_>
      <rects>
        <_>
          4 4 14 6 -1.</_>
        <_>
          4 6 14 2 2.</_></rects>
      <tilted>0</tilted></_>
    <_>
      <rects>
        <_>
          5 0 13 10 -1.</_>
        <_>
          5 5 13 5 2.</_></rects>
      <tilted>0</tilted></_>
    <_>
      <rects>
        <_>
          5 0 14 8 -1.</_>
        <_>
          5 4 14 4 2.</_></rects>
      <tilted>0</tilted></_>
    <_>
      <rects>
        <_>
          5 3 10 2 -1.</_>
        <_>
          5 4 10 1 2.</_></rects>
      <tilted>0</tilted></_>
    <_>
      <rects>
        <_>
          5 4 16 20 -1.</_>
        <_>
          5 14 16 10 2.</_></rects>
      <tilted>0</tilted></_>
    <_>
      <rects>
        <_>
          5 6 15 14 -1.</_>
        <_>
          5 13 15 7 2.</_></rects>
      <tilted>0</tilted></_>
    <_>
      <rects>
        <_>
          5 7 16 12 -1.</_>
        <_>
          5 13 16 6 2.</_></rects>
      <tilted>0</tilted></_>
    <_>
      <rects>
        <_>
          5 8 15 8 -1.</_>
        <_>
          5 12 15 4 2.</_></rects>
      <tilted>0</tilted></_>
    <_>
      <rects>
        <_>
          5 9 16 15 -1.</_>
        <_>
          5 14 16 5 2.</_></rects>
      <tilted>0</tilted></_>
    <_>
      <rects>
        <_>
          5 17 8 6 -1.</_>
        <_>
          5 20 8 3 2.</_></rects>
      <tilted>0</tilted></_>
    <_>
      <rects>
        <_>
          6 0 6 8 -1.</_>
        <_>
          6 0 3 4 2.</_>
        <_>
          9 4 3 4 2.</_></rects>
      <tilted>0</tilted></_>
    <_>
      <rects>
        <_>
          6 1 7 6 -1.</_>
        <_>
          6 4 7 3 2.</_></rects>
      <tilted>0</tilted></_>
    <_>
      <rects>
        <_>
          6 2 6 12 -1.</_>
        <_>
          9 2 3 12 2.</_></rects>
      <tilted>0</tilted></_>
    <_>
      <rects>
        <_>
          6 4 6 7 -1.</_>
        <_>
          9 4 3 7 2.</_></rects>
      <tilted>0</tilted></_>
    <_>
      <rects>
        <_>
          6 6 14 12 -1.</_>
        <_>
          6 12 14 6 2.</_></rects>
      <tilted>0</tilted></_>
    <_>
      <rects>
        <_>
          6 7 12 4 -1.</_>
        <_>
          10 7 4 4 2.</_></rects>
      <tilted>0</tilted></_>
    <_>
      <rects>
        <_>
          6 20 12 1 -1.</_>
        <_>
          10 20 4 1 2.</_></rects>
      <tilted>0</tilted></_>
    <_>
      <rects>
        <_>
          7 3 2 20 -1.</_>
        <_>
          7 13 2 10 2.</_></rects>
      <tilted>0</tilted></_>
    <_>
      <rects>
        <_>
          7 3 8 10 -1.</_>
        <_>
          11 3 4 10 2.</_></rects>
      <tilted>0</tilted></_>
    <_>
      <rects>
        <_>
          7 5 13 14 -1.</_>
        <_>
          7 12 13 7 2.</_></rects>
      <tilted>0</tilted></_>
    <_>
      <rects>
        <_>
          7 6 6 6 -1.</_>
        <_>
          10 6 3 6 2.</_></rects>
      <tilted>0</tilted></_>
    <_>
      <rects>
        <_>
          7 6 12 3 -1.</_>
        <_>
          11 6 4 3 2.</_></rects>
      <tilted>0</tilted></_>
    <_>
      <rects>
        <_>
          7 6 12 4 -1.</_>
        <_>
          11 6 4 4 2.</_></rects>
      <tilted>0</tilted></_>
    <_>
      <rects>
        <_>
          7 6 12 6 -1.</_>
        <_>
          13 6 6 6 2.</_></rects>
      <tilted>0</tilted></_>
    <_>
      <rects>
        <_>
          7 6 7 2 -1.</_>
        <_>
          7 7 7 1 2.</_></rects>
      <tilted>0</tilted></_>
    <_>
      <rects>
        <_>
          7 7 12 6 -1.</_>
        <_>
          11 7 4 6 2.</_></rects>
      <tilted>0</tilted></_>
    <_>
      <rects>
        <_>
          7 7 12 7 -1.</_>
        <_>
          11 7 4 7 2.</_></rects>
      <tilted>0</tilted></_>
    <_>
      <rects>
        <_>
          7 18 8 5 -1.</_>
        <_>
          11 18 4 5 2.</_></rects>
      <tilted>0</tilted></_>
    <_>
      <rects>
        <_>
          10 0 7 9 -1.</_>
        <_>
          10 3 7 3 2.</_></rects>
      <tilted>0</tilted></_>
    <_>
      <rects>
        <_>
          10 3 9 5 -1.</_>
        <_>
          13 3 3 5 2.</_></rects>
      <tilted>0</tilted></_>
    <_>
      <rects>
        <_>
          10 17 11 6 -1.</_>
        <_>
          10 20 11 3 2.</_></rects>
      <tilted>0</tilted></_>
    <_>
      <rects>
        <_>
          11 5 4 2 -1.</_>
        <_>
          11 6 4 1 2.</_></rects>
      <tilted>0</tilted></_>
    <_>
      <rects>
        <_>
          12 4 6 7 -1.</_>
        <_>
          15 4 3 7 2.</_></rects>
      <tilted>0</tilted></_>
    <_>
      <rects>
        <_>
          12 11 8 3 -1.</_>
        <_>
          16 11 4 3 2.</_></rects>
      <tilted>0</tilted></_>
    <_>
      <rects>
        <_>
          13 2 6 22 -1.</_>
        <_>
          13 2 3 11 2.</_>
        <_>
          16 13 3 11 2.</_></rects>
      <tilted>0</tilted></_>
    <_>
      <rects>
        <_>
          13 2 6 12 -1.</_>
        <_>
          16 2 3 12 2.</_></rects>
      <tilted>0</tilted></_>
    <_>
      <rects>
        <_>
          13 3 6 9 -1.</_>
        <_>
          16 3 3 9 2.</_></rects>
      <tilted>0</tilted></_>
    <_>
      <rects>
        <_>
          13 3 7 4 -1.</_>
        <_>
          13 5 7 2 2.</_></rects>
      <tilted>0</tilted></_>
    <_>
      <rects>
        <_>
          13 4 6 20 -1.</_>
        <_>
          13 4 3 10 2.</_>
        <_>
          16 14 3 10 2.</_></rects>
      <tilted>0</tilted></_>
    <_>
      <rects>
        <_>
          13 5 10 2 -1.</_>
        <_>
          13 5 5 1 2.</_>
        <_>
          18 6 5 1 2.</_></rects>
      <tilted>0</tilted></_>
    <_>
      <rects>
        <_>
          13 6 4 2 -1.</_>
        <_>
          13 7 4 1 2.</_></rects>
      <tilted>0</tilted></_>
    <_>
      <rects>
        <_>
          13 9 4 8 -1.</_>
        <_>
          13 9 2 4 2.</_>
        <_>
          15 13 2 4 2.</_></rects>
      <tilted>0</tilted></_>
    <_>
      <rects>
        <_>
          13 10 4 6 -1.</_>
        <_>
          13 10 2 3 2.</_>
        <_>
          15 13 2 3 2.</_></rects>
      <tilted>0</tilted></_>
    <_>
      <rects>
        <_>
          14 5 4 4 -1.</_>
        <_>
          14 7 4 2 2.</_></rects>
      <tilted>0</tilted></_>
    <_>
      <rects>
        <_>
          15 1 4 9 -1.</_>
        <_>
          17 1 2 9 2.</_></rects>
      <tilted>0</tilted></_>
    <_>
      <rects>
        <_>
          15 16 8 8 -1.</_>
        <_>
          15 20 8 4 2.</_></rects>
      <tilted>0</tilted></_>
    <_>
      <rects>
        <_>
          16 6 2 2 -1.</_>
        <_>
          16 7 2 1 2.</_></rects>
      <tilted>0</tilted></_>
    <_>
      <rects>
        <_>
          17 2 6 12 -1.</_>
        <_>
          17 2 3 6 2.</_>
        <_>
          20 8 3 6 2.</_></rects>
      <tilted>0</tilted></_>
    <_>
      <rects>
        <_>
          17 22 6 2 -1.</_>
        <_>
          17 22 3 1 2.</_>
        <_>
          20 23 3 1 2.</_></rects>
      <tilted>0</tilted></_>
    <_>
      <rects>
        <_>
          18 4 6 20 -1.</_>
        <_>
          21 4 3 20 2.</_></rects>
      <tilted>0</tilted></_>
    <_>
      <rects>
        <_>
          18 5 6 18 -1.</_>
        <_>
          21 5 3 18 2.</_></rects>
      <tilted>0</tilted></_>
    <_>
      <rects>
        <_>
          18 12 6 4 -1.</_>
        <_>
          21 12 3 4 2.</_></rects>
      <tilted>0</tilted></_>
    <_>
      <rects>
        <_>
          19 10 2 8 -1.</_>
        <_>
          19 10 1 4 2.</_>
        <_>
          20 14 1 4 2.</_></rects>
      <tilted>0</tilted></_>
    <_>
      <rects>
        <_>
          20 1 4 12 -1.</_>
        <_>
          20 1 2 6 2.</_>
        <_>
          22 7 2 6 2.</_></rects>
      <tilted>0</tilted></_>
    <_>
      <rects>
        <_>
          20 14 4 4 -1.</_>
        <_>
          20 14 2 2 2.</_>
        <_>
          22 16 2 2 2.</_></rects>
      <tilted>0</tilted></_>
    <_>
      <rects>
        <_>
          20 21 3 2 -1.</_>
        <_>
          20 22 3 1 2.</_></rects>
      <tilted>0</tilted></_>
    <_>
      <rects>
        <_>
          21 1 1 12 -1.</_>
        <_>
          21 5 1 4 2.</_></rects>
      <tilted>0</tilted></_>
    <_>
      <rects>
        <_>
          23 11 1 6 -1.</_>
        <_>
          23 13 1 2 2.</_></rects>
      <tilted>0</tilted></_></features></cascade>
</opencv_storage>
