<?xml version="1.0"?>
<opencv_storage>
<stage8>
  <maxWeakCount>5</maxWeakCount>
  <stageThreshold>-4.9687004089355469e-01</stageThreshold>
  <weakClassifiers>
    <_>
      <internalNodes>
        0 -1 66624 4.9448758363723755e-02</internalNodes>
      <leafValues>
        -5.2941179275512695e-01 6.7441862821578979e-01</leafValues></_>
    <_>
      <internalNodes>
        0 -1 129145 2.9925778508186340e-02</internalNodes>
      <leafValues>
        -3.3839273452758789e-01 9.4193750619888306e-01</leafValues></_>
    <_>
      <internalNodes>
        0 -1 4378 -6.7796267569065094e-02</internalNodes>
      <leafValues>
        6.0725635290145874e-01 -5.7926863431930542e-01</leafValues></_>
    <_>
      <internalNodes>
        0 -1 130401 1.0132453171536326e-03</internalNodes>
      <leafValues>
        -6.7773610353469849e-01 5.0959581136703491e-01</leafValues></_>
    <_>
      <internalNodes>
        0 -1 63399 -2.2164321853779256e-04</internalNodes>
      <leafValues>
        5.8728080987930298e-01 -7.6322311162948608e-01</leafValues></_></weakClassifiers></stage8>
</opencv_storage>
